<?xml version="1.0"?>
<opencv_storage>
<cascade>
  <stageType>BOOST</stageType>
  <featureType>HAAR</featureType>
  <height>50</height>
  <width>50</width>
  <stageParams>
    <boostType>GAB</boostType>
    <minHitRate>9.9500000476837158e-01</minHitRate>
    <maxFalseAlarm>5.0000000000000000e-01</maxFalseAlarm>
    <weightTrimRate>9.4999998807907104e-01</weightTrimRate>
    <maxDepth>1</maxDepth>
    <maxWeakCount>100</maxWeakCount></stageParams>
  <featureParams>
    <maxCatCount>0</maxCatCount>
    <featSize>1</featSize>
    <mode>BASIC</mode></featureParams>
  <stageNum>6</stageNum>
  <stages>
    <!-- stage 0 -->
    <_>
      <maxWeakCount>10</maxWeakCount>
      <stageThreshold>-1.3213081359863281e+00</stageThreshold>
      <weakClassifiers>
        <_>
          <internalNodes>
            0 -1 11 -2.7135768905282021e-02</internalNodes>
          <leafValues>
            7.3333334922790527e-01 -4.1734862327575684e-01</leafValues></_>
        <_>
          <internalNodes>
            0 -1 7 1.0911007970571518e-01</internalNodes>
          <leafValues>
            -2.9737401008605957e-01 7.7377706766128540e-01</leafValues></_>
        <_>
          <internalNodes>
            0 -1 2 -1.7414338886737823e-01</internalNodes>
          <leafValues>
            5.9898567199707031e-01 -2.1814768016338348e-01</leafValues></_>
        <_>
          <internalNodes>
            0 -1 25 1.1649639904499054e-01</internalNodes>
          <leafValues>
            -2.0863889157772064e-01 7.2233211994171143e-01</leafValues></_>
        <_>
          <internalNodes>
            0 -1 34 -1.2456700205802917e-03</internalNodes>
          <leafValues>
            -5.2338558435440063e-01 2.6597633957862854e-01</leafValues></_>
        <_>
          <internalNodes>
            0 -1 27 -3.2325875014066696e-02</internalNodes>
          <leafValues>
            7.5513803958892822e-01 -1.5106055140495300e-01</leafValues></_>
        <_>
          <internalNodes>
            0 -1 23 5.2715120837092400e-03</internalNodes>
          <leafValues>
            -2.0998965203762054e-01 5.3997153043746948e-01</leafValues></_>
        <_>
          <internalNodes>
            0 -1 13 1.9096933101536706e-05</internalNodes>
          <leafValues>
            3.6539644002914429e-01 -3.3352702856063843e-01</leafValues></_>
        <_>
          <internalNodes>
            0 -1 16 2.7559258043766022e-02</internalNodes>
          <leafValues>
            -1.9482627511024475e-01 7.0880311727523804e-01</leafValues></_>
        <_>
          <internalNodes>
            0 -1 19 6.6361215431243181e-05</internalNodes>
          <leafValues>
            2.6094719767570496e-01 -4.4794207811355591e-01</leafValues></_></weakClassifiers></_>
    <!-- stage 1 -->
    <_>
      <maxWeakCount>9</maxWeakCount>
      <stageThreshold>-1.1753008365631104e+00</stageThreshold>
      <weakClassifiers>
        <_>
          <internalNodes>
            0 -1 10 -3.4827336668968201e-02</internalNodes>
          <leafValues>
            6.8454259634017944e-01 -3.9573070406913757e-01</leafValues></_>
        <_>
          <internalNodes>
            0 -1 21 8.6330808699131012e-02</internalNodes>
          <leafValues>
            -2.2786587476730347e-01 7.2910523414611816e-01</leafValues></_>
        <_>
          <internalNodes>
            0 -1 9 2.7910526114283130e-05</internalNodes>
          <leafValues>
            3.4158888459205627e-01 -4.4799917936325073e-01</leafValues></_>
        <_>
          <internalNodes>
            0 -1 32 2.4349031969904900e-02</internalNodes>
          <leafValues>
            -2.5092500448226929e-01 5.4623514413833618e-01</leafValues></_>
        <_>
          <internalNodes>
            0 -1 17 -1.7387929838150740e-03</internalNodes>
          <leafValues>
            6.7576330900192261e-01 -1.8537035584449768e-01</leafValues></_>
        <_>
          <internalNodes>
            0 -1 3 -2.1524193882942200e-01</internalNodes>
          <leafValues>
            7.4947243928909302e-01 -1.4258848130702972e-01</leafValues></_>
        <_>
          <internalNodes>
            0 -1 22 2.6053483597934246e-03</internalNodes>
          <leafValues>
            -2.2828853130340576e-01 6.2939596176147461e-01</leafValues></_>
        <_>
          <internalNodes>
            0 -1 20 -7.4503390351310372e-04</internalNodes>
          <leafValues>
            7.7501636743545532e-01 -1.2672880291938782e-01</leafValues></_>
        <_>
          <internalNodes>
            0 -1 1 -1.1836094781756401e-02</internalNodes>
          <leafValues>
            5.6951487064361572e-01 -2.5007712841033936e-01</leafValues></_></weakClassifiers></_>
    <!-- stage 2 -->
    <_>
      <maxWeakCount>9</maxWeakCount>
      <stageThreshold>-1.1394988298416138e+00</stageThreshold>
      <weakClassifiers>
        <_>
          <internalNodes>
            0 -1 18 2.2928858175873756e-02</internalNodes>
          <leafValues>
            -4.4014084339141846e-01 6.3128489255905151e-01</leafValues></_>
        <_>
          <internalNodes>
            0 -1 8 2.1358265075832605e-03</internalNodes>
          <leafValues>
            2.8300717473030090e-01 -6.8266493082046509e-01</leafValues></_>
        <_>
          <internalNodes>
            0 -1 30 -1.7408925486961380e-05</internalNodes>
          <leafValues>
            -5.2566820383071899e-01 3.4198206663131714e-01</leafValues></_>
        <_>
          <internalNodes>
            0 -1 29 -1.1286964581813663e-04</internalNodes>
          <leafValues>
            5.8844512701034546e-01 -3.3151850104331970e-01</leafValues></_>
        <_>
          <internalNodes>
            0 -1 5 1.2556931324070320e-05</internalNodes>
          <leafValues>
            3.7113037705421448e-01 -4.8686829209327698e-01</leafValues></_>
        <_>
          <internalNodes>
            0 -1 4 -8.2218262832611799e-04</internalNodes>
          <leafValues>
            8.6621439456939697e-01 -1.9608786702156067e-01</leafValues></_>
        <_>
          <internalNodes>
            0 -1 35 -6.1278806242626160e-06</internalNodes>
          <leafValues>
            -4.0776559710502625e-01 4.4795769453048706e-01</leafValues></_>
        <_>
          <internalNodes>
            0 -1 31 7.8990857582539320e-04</internalNodes>
          <leafValues>
            3.7440413236618042e-01 -5.3675740957260132e-01</leafValues></_>
        <_>
          <internalNodes>
            0 -1 12 -2.0617358386516571e-03</internalNodes>
          <leafValues>
            8.3857160806655884e-01 -2.6685947179794312e-01</leafValues></_></weakClassifiers></_>
    <!-- stage 3 -->
    <_>
      <maxWeakCount>5</maxWeakCount>
      <stageThreshold>-4.6637958288192749e-01</stageThreshold>
      <weakClassifiers>
        <_>
          <internalNodes>
            0 -1 14 2.2459379397332668e-03</internalNodes>
          <leafValues>
            5.1282054185867310e-01 -5.7641923427581787e-01</leafValues></_>
        <_>
          <internalNodes>
            0 -1 26 1.8049738137051463e-03</internalNodes>
          <leafValues>
            6.1785537004470825e-01 -5.6618654727935791e-01</leafValues></_>
        <_>
          <internalNodes>
            0 -1 6 -3.0540497391484678e-05</internalNodes>
          <leafValues>
            -6.0899668931961060e-01 5.0899201631546021e-01</leafValues></_>
        <_>
          <internalNodes>
            0 -1 24 9.3386683147400618e-04</internalNodes>
          <leafValues>
            6.3464266061782837e-01 -5.6711381673812866e-01</leafValues></_>
        <_>
          <internalNodes>
            0 -1 15 -1.5385458245873451e-02</internalNodes>
          <leafValues>
            1. -3.5489171743392944e-01</leafValues></_></weakClassifiers></_>
    <!-- stage 4 -->
    <_>
      <maxWeakCount>2</maxWeakCount>
      <stageThreshold>7.9366318881511688e-02</stageThreshold>
      <weakClassifiers>
        <_>
          <internalNodes>
            0 -1 28 -5.8029871433973312e-04</internalNodes>
          <leafValues>
            -7.6252317428588867e-01 1.</leafValues></_>
        <_>
          <internalNodes>
            0 -1 33 -2.5929557159543037e-04</internalNodes>
          <leafValues>
            -7.8416621685028076e-01 8.4188950061798096e-01</leafValues></_></weakClassifiers></_>
    <!-- stage 5 -->
    <_>
      <maxWeakCount>1</maxWeakCount>
      <stageThreshold>1.</stageThreshold>
      <weakClassifiers>
        <_>
          <internalNodes>
            0 -1 0 2.9762538615614176e-03</internalNodes>
          <leafValues>
            1. -1.</leafValues></_></weakClassifiers></_></stages>
  <features>
    <_>
      <rects>
        <_>
          0 0 6 1 -1.</_>
        <_>
          2 0 2 1 3.</_></rects>
      <tilted>0</tilted></_>
    <_>
      <rects>
        <_>
          0 0 8 30 -1.</_>
        <_>
          4 0 4 30 2.</_></rects>
      <tilted>0</tilted></_>
    <_>
      <rects>
        <_>
          0 2 48 43 -1.</_>
        <_>
          16 2 16 43 3.</_></rects>
      <tilted>0</tilted></_>
    <_>
      <rects>
        <_>
          0 9 48 28 -1.</_>
        <_>
          16 9 16 28 3.</_></rects>
      <tilted>0</tilted></_>
    <_>
      <rects>
        <_>
          0 31 18 2 -1.</_>
        <_>
          0 32 18 1 2.</_></rects>
      <tilted>0</tilted></_>
    <_>
      <rects>
        <_>
          0 34 3 3 -1.</_>
        <_>
          1 34 1 3 3.</_></rects>
      <tilted>0</tilted></_>
    <_>
      <rects>
        <_>
          0 45 2 2 -1.</_>
        <_>
          0 45 1 1 2.</_>
        <_>
          1 46 1 1 2.</_></rects>
      <tilted>0</tilted></_>
    <_>
      <rects>
        <_>
          1 8 49 24 -1.</_>
        <_>
          1 20 49 12 2.</_></rects>
      <tilted>0</tilted></_>
    <_>
      <rects>
        <_>
          1 13 4 6 -1.</_>
        <_>
          1 15 4 2 3.</_></rects>
      <tilted>0</tilted></_>
    <_>
      <rects>
        <_>
          1 23 2 10 -1.</_>
        <_>
          2 23 1 10 2.</_></rects>
      <tilted>0</tilted></_>
    <_>
      <rects>
        <_>
          2 0 41 10 -1.</_>
        <_>
          2 5 41 5 2.</_></rects>
      <tilted>0</tilted></_>
    <_>
      <rects>
        <_>
          3 0 45 8 -1.</_>
        <_>
          3 4 45 4 2.</_></rects>
      <tilted>0</tilted></_>
    <_>
      <rects>
        <_>
          3 17 4 6 -1.</_>
        <_>
          3 19 4 2 3.</_></rects>
      <tilted>0</tilted></_>
    <_>
      <rects>
        <_>
          5 19 2 14 -1.</_>
        <_>
          6 19 1 14 2.</_></rects>
      <tilted>0</tilted></_>
    <_>
      <rects>
        <_>
          9 3 16 11 -1.</_>
        <_>
          17 3 8 11 2.</_></rects>
      <tilted>0</tilted></_>
    <_>
      <rects>
        <_>
          10 2 15 26 -1.</_>
        <_>
          15 2 5 26 3.</_></rects>
      <tilted>0</tilted></_>
    <_>
      <rects>
        <_>
          12 7 18 12 -1.</_>
        <_>
          12 13 18 6 2.</_></rects>
      <tilted>0</tilted></_>
    <_>
      <rects>
        <_>
          12 31 24 2 -1.</_>
        <_>
          12 32 24 1 2.</_></rects>
      <tilted>0</tilted></_>
    <_>
      <rects>
        <_>
          14 10 24 14 -1.</_>
        <_>
          14 17 24 7 2.</_></rects>
      <tilted>0</tilted></_>
    <_>
      <rects>
        <_>
          16 4 24 11 -1.</_>
        <_>
          24 4 8 11 3.</_></rects>
      <tilted>0</tilted></_>
    <_>
      <rects>
        <_>
          16 30 5 3 -1.</_>
        <_>
          16 31 5 1 3.</_></rects>
      <tilted>0</tilted></_>
    <_>
      <rects>
        <_>
          17 7 25 26 -1.</_>
        <_>
          17 20 25 13 2.</_></rects>
      <tilted>0</tilted></_>
    <_>
      <rects>
        <_>
          17 29 6 6 -1.</_>
        <_>
          17 31 6 2 3.</_></rects>
      <tilted>0</tilted></_>
    <_>
      <rects>
        <_>
          17 33 32 4 -1.</_>
        <_>
          17 35 32 2 2.</_></rects>
      <tilted>0</tilted></_>
    <_>
      <rects>
        <_>
          19 9 12 5 -1.</_>
        <_>
          23 9 4 5 3.</_></rects>
      <tilted>0</tilted></_>
    <_>
      <rects>
        <_>
          21 5 20 44 -1.</_>
        <_>
          21 27 20 22 2.</_></rects>
      <tilted>0</tilted></_>
    <_>
      <rects>
        <_>
          22 12 14 6 -1.</_>
        <_>
          29 12 7 6 2.</_></rects>
      <tilted>0</tilted></_>
    <_>
      <rects>
        <_>
          23 5 20 12 -1.</_>
        <_>
          23 11 20 6 2.</_></rects>
      <tilted>0</tilted></_>
    <_>
      <rects>
        <_>
          23 38 2 8 -1.</_>
        <_>
          23 38 1 4 2.</_>
        <_>
          24 42 1 4 2.</_></rects>
      <tilted>0</tilted></_>
    <_>
      <rects>
        <_>
          29 3 1 4 -1.</_>
        <_>
          29 5 1 2 2.</_></rects>
      <tilted>0</tilted></_>
    <_>
      <rects>
        <_>
          34 2 4 2 -1.</_>
        <_>
          36 2 2 2 2.</_></rects>
      <tilted>0</tilted></_>
    <_>
      <rects>
        <_>
          36 4 2 15 -1.</_>
        <_>
          37 4 1 15 2.</_></rects>
      <tilted>0</tilted></_>
    <_>
      <rects>
        <_>
          40 3 10 36 -1.</_>
        <_>
          45 3 5 36 2.</_></rects>
      <tilted>0</tilted></_>
    <_>
      <rects>
        <_>
          41 10 4 2 -1.</_>
        <_>
          41 10 2 1 2.</_>
        <_>
          43 11 2 1 2.</_></rects>
      <tilted>0</tilted></_>
    <_>
      <rects>
        <_>
          42 20 8 29 -1.</_>
        <_>
          46 20 4 29 2.</_></rects>
      <tilted>0</tilted></_>
    <_>
      <rects>
        <_>
          48 31 2 8 -1.</_>
        <_>
          49 31 1 8 2.</_></rects>
      <tilted>0</tilted></_></features></cascade>
</opencv_storage>
