<?xml version="1.0"?>
<opencv_storage>
<stage0>
  <maxWeakCount>10</maxWeakCount>
  <stageThreshold>-1.1151385307312012e+00</stageThreshold>
  <weakClassifiers>
    <_>
      <internalNodes>
        0 -1 604681 9.8156332969665527e-02</internalNodes>
      <leafValues>
        -3.7634408473968506e-01 8.1632655858993530e-01</leafValues></_>
    <_>
      <internalNodes>
        0 -1 789452 -1.1458877474069595e-02</internalNodes>
      <leafValues>
        6.1985617876052856e-01 -4.0545117855072021e-01</leafValues></_>
    <_>
      <internalNodes>
        0 -1 2717216 4.5479580760002136e-02</internalNodes>
      <leafValues>
        -2.5732496380805969e-01 5.6319558620452881e-01</leafValues></_>
    <_>
      <internalNodes>
        0 -1 414774 5.1379622163949534e-05</internalNodes>
      <leafValues>
        2.5595116615295410e-01 -4.8268058896064758e-01</leafValues></_>
    <_>
      <internalNodes>
        0 -1 59271 -4.9378618597984314e-02</internalNodes>
      <leafValues>
        6.1849278211593628e-01 -2.0782159268856049e-01</leafValues></_>
    <_>
      <internalNodes>
        0 -1 2284177 9.7109630703926086e-02</internalNodes>
      <leafValues>
        -1.8538263440132141e-01 7.6521342992782593e-01</leafValues></_>
    <_>
      <internalNodes>
        0 -1 1174385 2.0772365387529135e-03</internalNodes>
      <leafValues>
        -1.6609451174736023e-01 6.2568593025207520e-01</leafValues></_>
    <_>
      <internalNodes>
        0 -1 2961080 -6.7804053287545685e-06</internalNodes>
      <leafValues>
        -4.3822774291038513e-01 2.9150241613388062e-01</leafValues></_>
    <_>
      <internalNodes>
        0 -1 1441751 -1.4200275763869286e-03</internalNodes>
      <leafValues>
        4.6698510646820068e-01 -2.5520682334899902e-01</leafValues></_>
    <_>
      <internalNodes>
        0 -1 2003582 1.3063396327197552e-03</internalNodes>
      <leafValues>
        1.9103373587131500e-01 -7.2698730230331421e-01</leafValues></_></weakClassifiers></stage0>
</opencv_storage>
