<?xml version="1.0"?>
<opencv_storage>
<stage1>
  <maxWeakCount>9</maxWeakCount>
  <stageThreshold>-1.1753008365631104e+00</stageThreshold>
  <weakClassifiers>
    <_>
      <internalNodes>
        0 -1 240415 -3.4827336668968201e-02</internalNodes>
      <leafValues>
        6.8454259634017944e-01 -3.9573070406913757e-01</leafValues></_>
    <_>
      <internalNodes>
        0 -1 1726824 8.6330808699131012e-02</internalNodes>
      <leafValues>
        -2.2786587476730347e-01 7.2910523414611816e-01</leafValues></_>
    <_>
      <internalNodes>
        0 -1 202073 2.7910526114283130e-05</internalNodes>
      <leafValues>
        3.4158888459205627e-01 -4.4799917936325073e-01</leafValues></_>
    <_>
      <internalNodes>
        0 -1 2904755 2.4349031969904900e-02</internalNodes>
      <leafValues>
        -2.5092500448226929e-01 5.4623514413833618e-01</leafValues></_>
    <_>
      <internalNodes>
        0 -1 1353645 -1.7387929838150740e-03</internalNodes>
      <leafValues>
        6.7576330900192261e-01 -1.8537035584449768e-01</leafValues></_>
    <_>
      <internalNodes>
        0 -1 41232 -2.1524193882942200e-01</internalNodes>
      <leafValues>
        7.4947243928909302e-01 -1.4258848130702972e-01</leafValues></_>
    <_>
      <internalNodes>
        0 -1 1768992 2.6053483597934246e-03</internalNodes>
      <leafValues>
        -2.2828853130340576e-01 6.2939596176147461e-01</leafValues></_>
    <_>
      <internalNodes>
        0 -1 1691207 -7.4503390351310372e-04</internalNodes>
      <leafValues>
        7.7501636743545532e-01 -1.2672880291938782e-01</leafValues></_>
    <_>
      <internalNodes>
        0 -1 622 -1.1836094781756401e-02</internalNodes>
      <leafValues>
        5.6951487064361572e-01 -2.5007712841033936e-01</leafValues></_></weakClassifiers></stage1>
</opencv_storage>
