<?xml version="1.0"?>
<opencv_storage>
<stage0>
  <maxWeakCount>10</maxWeakCount>
  <stageThreshold>-1.3213081359863281e+00</stageThreshold>
  <weakClassifiers>
    <_>
      <internalNodes>
        0 -1 356036 -2.7135768905282021e-02</internalNodes>
      <leafValues>
        7.3333334922790527e-01 -4.1734862327575684e-01</leafValues></_>
    <_>
      <internalNodes>
        0 -1 157677 1.0911007970571518e-01</internalNodes>
      <leafValues>
        -2.9737401008605957e-01 7.7377706766128540e-01</leafValues></_>
    <_>
      <internalNodes>
        0 -1 11883 -1.7414338886737823e-01</internalNodes>
      <leafValues>
        5.9898567199707031e-01 -2.1814768016338348e-01</leafValues></_>
    <_>
      <internalNodes>
        0 -1 2019276 1.1649639904499054e-01</internalNodes>
      <leafValues>
        -2.0863889157772064e-01 7.2233211994171143e-01</leafValues></_>
    <_>
      <internalNodes>
        0 -1 2957814 -1.2456700205802917e-03</internalNodes>
      <leafValues>
        -5.2338558435440063e-01 2.6597633957862854e-01</leafValues></_>
    <_>
      <internalNodes>
        0 -1 2153461 -3.2325875014066696e-02</internalNodes>
      <leafValues>
        7.5513803958892822e-01 -1.5106055140495300e-01</leafValues></_>
    <_>
      <internalNodes>
        0 -1 1774424 5.2715120837092400e-03</internalNodes>
      <leafValues>
        -2.0998965203762054e-01 5.3997153043746948e-01</leafValues></_>
    <_>
      <internalNodes>
        0 -1 639535 1.9096933101536706e-05</internalNodes>
      <leafValues>
        3.6539644002914429e-01 -3.3352702856063843e-01</leafValues></_>
    <_>
      <internalNodes>
        0 -1 1300848 2.7559258043766022e-02</internalNodes>
      <leafValues>
        -1.9482627511024475e-01 7.0880311727523804e-01</leafValues></_>
    <_>
      <internalNodes>
        0 -1 1636208 6.6361215431243181e-05</internalNodes>
      <leafValues>
        2.6094719767570496e-01 -4.4794207811355591e-01</leafValues></_></weakClassifiers></stage0>
</opencv_storage>
